tree
version=v3
num_class=1
num_tree_per_iteration=1
label_index=0
max_feature_idx=27
objective=regression
feature_names=1 2 3 4 5 6 7 8 9 10 11 12 13 14 15 16 17 18 19 20 21 22 23 24 25 26 27 28
feature_infos=[0.27500000000000002:6.6950000000000003] [-2.4169999999999998:2.4300000000000002] [-1.7430000000000001:1.7430000000000001] [0.019:5.7000000000000002] [-1.7430000000000001:1.7430000000000001] [0.159:4.1900000000000004] [-2.9410000000000003:2.9700000000000002] [-1.7409999999999999:1.7409999999999999] [0:2.173] [0.19:5.1929999999999996] [-2.9039999999999999:2.9089999999999998] [-1.742:1.7430000000000001] [0:2.2149999999999999] [0.26400000000000001:6.5229999999999997] [-2.7280000000000002:2.7269999999999999] [-1.742:1.742] [0:2.548] [0.36499999999999999:6.0679999999999996] [-2.4950000000000001:2.496] [-1.74:1.7430000000000001] [0:3.1019999999999999] [0.17199999999999999:13.097999999999999] [0.41899999999999998:7.3920000000000003] [0.46100000000000002:3.6819999999999999] [0.38400000000000001:6.5829999999999993] [0.093000000000000013:7.8600000000000003] [0.38900000000000001:4.5430000000000001] [0.48899999999999999:4.3159999999999998]
tree_sizes=2723 2798 2796 2803 2816 2786 2808 2785 2822 2799 2806 2800 2815 2811 2819 2807 2818 2793 2816 2814

Tree=0
num_leaves=31
num_cat=0
split_feature=25 25 5 27 26 25 27 0 25 22 27 9 3 22 26 27 25 5 24 3 9 3 26 25 24 24 0 10 21 13
split_gain=66.3616 40.7868 22.9824 25.0782 21.3045 14.8052 10.1033 8.42394 7.3876 6.32811 6.32301 6.01169 5.24518 5.00873 4.89673 5.98412 4.75802 4.47031 4.42903 4.26008 3.85973 3.75658 3.55003 4.2637 3.43105 3.96018 3.38685 3.22436 3.21093 3.26631
threshold=1.2045000000000001 0.61750000000000005 0.86950000000000016 0.90250000000000019 0.77650000000000008 0.96550000000000014 0.90450000000000019 1.7305000000000004 1.8325000000000002 1.0545000000000002 0.96150000000000013 1.0365000000000002 2.6165000000000007 0.75250000000000006 0.86950000000000016 0.79950000000000021 0.98950000000000016 0.89650000000000007 0.64150000000000007 1.6175000000000004 0.9265000000000001 1.3345000000000002 0.85650000000000015 0.84250000000000014 1.0755000000000001 1.4775000000000003 1.1865000000000003 -0.11849999999999999 0.82650000000000012 1.3085000000000002
decision_type=2 2 2 2 2 2 2 2 2 2 2 2 2 2 2 2 2 2 2 2 2 2 2 2 2 2 2 2 2 2
left_child=1 11 4 22 18 6 14 12 9 10 17 19 16 -12 15 -6 -5 20 -3 28 -2 -8 23 -4 -9 -26 -25 -22 -1 -30
right_child=8 2 3 7 5 -7 21 24 -10 -11 13 -13 -14 -15 -16 -17 -18 -19 -20 -21 27 -23 -24 26 25 -27 -28 -29 29 -31
leaf_value=0.52011515136869435 0.50986984112338407 0.53334654363234468 0.54696134439135791 0.5406140513757911 0.54151807703702282 0.52661542193146493 0.53494491619845919 0.51492034617388915 0.51437434562788864 0.5297018824670533 0.5346714284249714 0.53231428556782856 0.51431428556782854 0.51233897692585317 0.5460970153728425 0.52473682077909611 0.53113720223449523 0.52955700401443051 0.51854786221016425 0.51488339125888549 0.53717142842497134 0.52319183658823665 0.5488997339603835 0.53861661114922388 0.5408996514214871 0.51721751137428018 0.5162190474725904 0.51650940751904806 0.52577654971877197 0.538524811883618
leaf_weight=231 72 62 170 427 211 352 222 66 333 258 28 250 25 243 359 71 192 206 274 123 35 98 591 86 41 31 21 41 424 57
leaf_count=231 72 62 170 427 211 352 222 66 333 258 28 250 25 243 359 71 192 206 274 123 35 98 591 86 41 31 21 41 424 57
internal_value=0 0.0612961 0.116612 0.200052 0.033121 0.0906204 0.154887 0.0701659 -0.202732 -0.154866 -0.209257 -0.106894 0.118211 -0.324215 0.227333 0.128717 0.136348 -0.121253 -0.191571 -0.147624 -0.25383 0.00976785 0.317069 0.223655 -0.154046 -0.00307937 0.0672737 -0.0966466 -0.117936 -0.0713977
internal_weight=0 4384 3299 1650 1649 1313 961 782 1216 883 625 1085 644 271 641 282 619 354 336 835 148 320 868 277 138 72 107 76 712 481
internal_count=5600 4384 3299 1650 1649 1313 961 782 1216 883 625 1085 644 271 641 282 619 354 336 835 148 320 868 277 138 72 107 76 712 481
shrinkage=1


Tree=1
num_leaves=31
num_cat=0
split_feature=25 25 26 5 26 25 22 9 5 22 3 13 24 24 9 24 2 3 19 26 22 19 3 25 26 9 14 24 26 26
split_gain=60.2213 43.9028 22.2337 12.2212 10.2123 9.87868 9.12348 8.15993 5.84999 5.39933 3.84942 3.81326 3.48928 3.47781 3.37763 3.37068 5.06449 3.20709 3.15667 3.01191 3.04265 2.99495 3.2905 2.99173 2.92868 2.9236 2.88293 2.86495 3.88664 2.73389
threshold=1.0675000000000001 0.66550000000000009 0.8055000000000001 0.82050000000000012 1.0825000000000002 1.8325000000000002 1.0375000000000003 1.1375000000000002 0.86950000000000016 0.77950000000000019 2.4510000000000005 1.2955000000000003 0.71850000000000014 0.66250000000000009 1.2475000000000003 1.3295000000000001 1.0880000000000003 1.1435000000000002 1.2315000000000003 0.73350000000000015 0.82350000000000012 1.2875000000000003 0.3615000000000001 0.98450000000000015 0.84350000000000014 1.8455000000000001 0.81250000000000011 0.97750000000000015 0.99350000000000016 1.1955000000000002
decision_type=2 2 2 2 2 2 2 2 2 2 2 2 2 2 2 2 2 2 2 2 2 2 2 2 2 2 2 2 2 2
left_child=1 7 3 26 8 6 9 11 14 -2 25 12 -1 -11 17 16 21 23 29 -14 -21 22 -8 24 -4 -6 -3 28 -15 -9
right_child=5 2 4 -5 10 -7 15 18 -10 13 -12 -13 19 27 -16 -17 -18 -19 -20 20 -22 -23 -24 -25 -26 -27 -28 -29 -30 -31
leaf_value=-0.0025512426994205302 0.00076943409394442553 -0.010848645301929034 0.0016887773167003285 0.0082215783952255938 0.0031899781240043792 -0.015658658407292924 0.0078787121921777732 0.0094170270106160511 0.014168976164034234 0.0034217718456472667 -0.01696373833851381 0.0028008227103522849 -0.014381797874675079 -0.0095020012256312875 0.017124679540434191 0.0084929219977830043 0.011198753615220387 0.0014604289650292923 -0.0099714064688393583 0.00026994621859187574 -0.009173220730033415 0.010542579933449075 -0.0093607377715227078 -0.00094615590113859914 0.012424556984881725 0.015531858323879964 0.001191362786677576 -0.0080434127250708729 -0.019887055043195715 -0.0057825231303771339
leaf_weight=306 123 251 77 169 507 333 32 166 841 42 22 112 187 188 93 93 57 191 33 113 348 27 205 65 363 53 62 332 173 36
leaf_count=306 123 251 77 169 507 333 32 166 841 42 22 112 187 188 93 93 57 191 33 113 348 27 205 65 363 53 62 332 173 36
internal_value=0 0.0694956 0.142345 -0.0522697 0.184752 -0.159841 -0.1197 -0.0813553 0.225353 -0.178529 0.0710414 -0.11854 -0.139033 -0.210981 0.163503 0.00222164 -0.046346 0.139586 0.0873191 -0.180592 -0.13717 -0.104711 -0.140661 0.181333 0.210916 0.087161 -0.169274 -0.227915 -0.289575 0.134164
internal_weight=0 3995 2694 482 2212 1605 1272 1301 1630 858 582 1066 954 735 789 414 321 696 235 648 461 264 237 505 440 560 313 693 361 202
internal_count=5600 3995 2694 482 2212 1605 1272 1301 1630 858 582 1066 954 735 789 414 321 696 235 648 461 264 237 505 440 560 313 693 361 202
shrinkage=0.05


Tree=2
num_leaves=31
num_cat=0
split_feature=27 26 22 24 5 5 22 22 27 26 27 3 27 26 0 24 27 8 5 23 3 2 0 24 24 2 5 6 6 9
split_gain=39.8167 42.8405 19.1672 26.7508 11.023 9.69586 5.42155 5.09661 4.54182 4.3 4.29212 3.66604 3.62644 3.35177 3.16394 3.10619 3.01809 2.91908 3.73682 3.1744 2.89873 3.00038 2.71715 2.68399 4.60341 2.66518 2.57917 2.54865 2.56106 2.37755
threshold=0.90450000000000019 0.81150000000000011 1.0465000000000002 1.0755000000000001 0.82050000000000012 0.90050000000000008 1.0605000000000002 0.76250000000000007 0.84050000000000014 0.89850000000000019 1.1225000000000003 2.4510000000000005 1.0885000000000002 0.86050000000000015 1.6475000000000002 1.0405000000000002 0.80650000000000011 1.0000000180025095e-35 1.7625000000000002 0.98750000000000016 1.6295000000000002 0.52350000000000019 0.70450000000000013 1.3095000000000003 0.8055000000000001 -1.5134999999999998 1.6515000000000002 -1.8214999999999997 1.3790000000000002 1.1935000000000002
decision_type=2 2 2 2 2 2 2 2 2 2 2 2 2 2 2 2 2 2 2 2 2 2 2 2 2 2 2 2 2 2
left_child=1 4 3 12 14 6 8 -5 13 -10 26 17 -2 -3 29 -11 25 18 19 -12 -9 -22 -15 24 -19 -6 27 -4 -29 -1
right_child=2 5 10 7 16 -7 -8 20 9 15 11 -13 -14 22 -16 -17 -18 23 -20 -21 21 -23 -24 -25 -26 -27 -28 28 -30 -31
leaf_value=-0.008517610635185106 -0.012925042424883163 0.0011255222998681617 -0.014179796651005744 0.0080657021590956942 -0.012178000594888416 0.012113067468997589 0.012857507826179587 -0.0017663762619919031 -0.013333842914838058 -0.0043024857537915014 0.0065319229321307449 -0.018226465889636209 -0.020608480262611559 0.0025936728077275411 0.0048237232634654416 0.0088557897726210168 -0.0069603457325889215 0.0083089324717338271 0.01204975661304262 -0.0059658533289232325 -0.0044148250967264184 -0.018870105408132078 0.011545717543616718 -0.00035129474832656536 -0.015331777132520772 0.0062278934255723031 0.019180984408767136 0.0053123052377958557 -0.009027070552110673 0.0060907623891172744
leaf_weight=704 406 244 20 108 21 923 186 484 65 99 83 34 247 126 52 82 62 26 72 131 100 56 259 141 99 310 27 370 34 29
leaf_count=704 406 244 20 108 21 923 186 484 65 99 83 34 247 126 52 82 62 26 72 131 100 56 259 141 99 310 27 370 34 29
internal_value=0 0.0776192 -0.0924513 -0.168735 -0.0734391 0.16731 0.102107 -0.0396267 0.0691497 -0.0460546 0.0106091 -0.0458307 -0.316627 0.114206 -0.141884 0.0331744 0.0632757 -0.0262008 0.0439304 -0.0223717 -0.0735355 -0.192078 0.172319 -0.101605 -0.20829 0.101203 0.0839434 0.0648602 0.0821105 -0.158793
internal_weight=0 3162 2438 1401 1178 1984 1061 748 875 246 1037 586 653 629 785 181 393 552 286 214 640 156 385 266 125 331 451 424 404 733
internal_count=5600 3162 2438 1401 1178 1984 1061 748 875 246 1037 586 653 629 785 181 393 552 286 214 640 156 385 266 125 331 451 424 404 733
shrinkage=0.05


Tree=3
num_leaves=31
num_cat=0
split_feature=25 25 5 27 26 25 27 0 3 3 24 24 27 15 25 6 17 9 9 27 13 0 9 15 22 24 21 26 25 9
split_gain=53.2969 31.5898 18.4043 21.7553 16.2292 14.5652 8.36011 7.07032 5.28059 4.59173 4.51276 4.27298 7.40322 4.69883 4.15199 3.99851 3.83719 3.73993 3.63541 3.86757 3.88173 4.60335 4.36048 4.0147 3.58989 3.54318 3.39951 3.14541 3.92605 3.12227
threshold=1.2450000000000003 0.59250000000000014 0.87650000000000006 0.90250000000000019 0.77650000000000008 0.96550000000000014 0.85750000000000004 1.7305000000000004 1.8535000000000004 2.0310000000000001 0.64150000000000007 1.3235000000000003 1.0245000000000002 -1.5714999999999997 0.99250000000000005 1.1275000000000002 1.6815000000000002 1.0415000000000003 1.6725000000000001 0.90450000000000019 1.2955000000000003 0.96850000000000014 0.76250000000000007 -0.56949999999999978 1.1135000000000004 1.0895000000000004 1.0925000000000002 0.85650000000000015 0.94550000000000012 1.2680000000000005
decision_type=2 2 2 2 2 2 2 2 2 2 2 2 2 2 2 2 2 2 2 2 2 2 2 2 2 2 2 2 2 2
left_child=1 18 4 27 10 6 -6 9 11 14 -3 12 13 -2 -5 25 -13 -7 19 20 21 22 -1 -22 -15 -9 -21 28 -4 -8
right_child=8 2 3 7 5 17 29 15 -10 -11 -12 16 -14 24 -16 -17 -18 -19 -20 26 23 -23 -24 -25 -26 -27 -28 -29 -30 -31
leaf_value=-0.014342653060425592 0.016772226563521796 0.0031567878919105011 0.012383948642113979 0.0091035513302027173 0.011005006831671511 -0.0073216697059828653 0.00015862545409759917 -0.019029619343697082 -0.021691121555954578 -0.0068481189608573913 -0.010705132494370143 -0.0053725993955457537 -0.016057648425950106 -0.0090040893762944694 0.00025122025838265053 0.013379160240292549 0.012266088216691404 0.0036913585237094339 0.0098627347695200082 -0.014592291391209553 -0.0083699600263075404 -0.00029774567773265226 -0.0030567684369843182 0.01874118559062481 0.0044825189347778051 -0.0021235556876073119 -0.0020205988486607872 0.016054013351466032 -0.0028807752272661997 0.012248815475933013
leaf_weight=179 21 73 242 413 560 290 385 63 83 75 300 185 329 415 195 20 37 105 38 190 22 279 164 36 56 61 75 596 51 62
leaf_count=179 21 73 242 413 560 290 385 63 83 75 300 185 329 415 195 20 37 105 38 190 22 279 164 36 56 61 75 596 51 62
internal_value=0 0.0523405 0.0969294 0.170775 0.0255382 0.0748589 0.138695 0.0540345 -0.191063 0.0964904 -0.159844 -0.171745 -0.205029 -0.127376 0.125288 -0.147336 -0.0486564 -0.0878831 -0.106012 -0.118206 -0.0782698 -0.101341 -0.17893 0.169153 -0.148012 -0.214259 -0.220685 0.279374 0.194539 0.0367113
internal_weight=0 4474 3491 1716 1775 1402 1007 827 1126 683 373 1043 821 492 608 144 222 395 983 945 680 622 343 58 471 124 265 889 293 447
internal_count=5600 4474 3491 1716 1775 1402 1007 827 1126 683 373 1043 821 492 608 144 222 395 983 945 680 622 343 58 471 124 265 889 293 447
shrinkage=0.05


Tree=4
num_leaves=31
num_cat=0
split_feature=25 25 26 27 5 26 25 25 22 27 9 5 0 3 24 22 24 27 26 21 24 24 2 27 27 13 22 21 22 19
split_gain=48.3483 34.9915 17.5532 18.3076 9.55325 8.93347 7.90551 7.84368 7.67852 7.20627 6.58612 4.92754 4.88122 4.60128 4.50644 8.05077 4.54122 3.5149 5.80862 4.0161 3.29415 3.01926 4.36388 3.42107 2.94424 2.92899 2.85564 3.45897 2.8082 2.74352
threshold=1.0675000000000001 0.66550000000000009 0.77650000000000008 0.90450000000000019 0.82050000000000012 0.85850000000000015 1.8325000000000002 0.83950000000000014 1.0375000000000003 1.0025000000000002 1.1375000000000002 1.1885000000000001 1.3185000000000002 1.7675000000000003 1.1805000000000001 1.0215000000000003 0.99950000000000017 0.85250000000000015 0.79050000000000009 1.3125000000000002 0.98950000000000016 1.3295000000000001 1.0880000000000003 1.1575000000000002 0.82650000000000012 1.3735000000000004 1.1035000000000001 0.79950000000000021 0.68650000000000011 -1.1484999999999996
decision_type=2 2 2 2 2 2 2 2 2 2 2 2 2 2 2 2 2 2 2 2 2 2 2 2 2 2 2 2 2 2
left_child=1 10 4 5 -3 7 8 -4 9 11 17 -2 -9 14 15 16 -5 18 26 -19 -13 22 23 -10 -12 -20 27 28 -1 -29
right_child=6 2 3 13 -6 -7 -8 12 21 -11 24 20 -14 -15 -16 -17 -18 19 25 -21 -22 -23 -24 -25 -26 -27 -28 29 -30 -31
leaf_value=0.0034031446490968976 -0.0071207237833489983 -0.0094963389574264992 0.011783502784977973 -0.012559255824341038 0.0075356322791307207 0.014376908837805822 -0.014026611788315817 0.0016859869589868762 -0.0012019752431168128 -0.014815283668437127 0.010285017067946278 -0.0031681364370604696 -0.019541450386697596 -0.0047599114389980544 0.0085068302428991781 0.0067275904674156039 0.0037797636022934549 -0.011633659073031776 0.0018839979010659297 0.0025252074251572291 0.014471396151930094 0.0081526011228561408 0.010467793073570521 -0.013822904586791994 -0.00099435248835520306 0.022026107609272004 0.01105563847914986 0.0046901162551796953 -0.016392169135515808 -0.0065117604265648157
leaf_weight=21 480 245 226 123 124 948 333 151 189 271 103 59 33 170 354 255 65 303 185 60 48 93 57 75 132 20 23 69 122 263
leaf_count=21 480 245 226 123 124 948 333 151 189 271 103 59 33 170 354 255 65 303 185 60 48 93 57 75 132 20 23 69 122 263
internal_value=0 0.0621236 0.127161 0.159318 -0.0754572 0.234199 -0.143365 0.110868 -0.107456 -0.161426 -0.0725503 -0.0991564 -0.0424222 0.0541606 0.0860188 0.0188005 -0.138203 -0.105957 -0.0646945 -0.185867 0.0948985 0.00439444 -0.0415718 -0.0957493 0.0789874 0.0769816 -0.123015 -0.139678 -0.269703 -0.0836732
internal_weight=0 3995 2694 2325 369 1358 1605 410 1272 858 1301 587 184 967 797 443 188 1066 703 363 107 414 321 264 235 205 498 475 143 332
internal_count=5600 3995 2694 2325 369 1358 1605 410 1272 858 1301 587 184 967 797 443 188 1066 703 363 107 414 321 264 235 205 498 475 143 332
shrinkage=0.05


Tree=5
num_leaves=31
num_cat=0
split_feature=25 25 26 25 5 3 25 0 22 13 5 22 1 5 0 21 3 24 5 22 25 0 13 5 24 0 24 23 17 19
split_gain=47.8733 26.7521 17.0717 14.3069 7.96092 7.91493 5.95659 5.2353 4.92965 4.62275 4.22327 4.10485 3.90636 3.86425 3.81353 3.78126 3.65803 2.94751 2.85548 3.74392 3.23206 2.81135 3.5284 3.09124 3.33145 2.7035 2.60334 2.8769 2.53992 2.53984
threshold=1.1785000000000003 0.59250000000000014 0.77650000000000008 0.98450000000000015 0.8015000000000001 1.5465000000000002 1.4915 1.4035000000000004 1.0105000000000002 0.73250000000000004 1.1815000000000002 0.88150000000000006 0.68150000000000011 1.3365000000000002 1.4105000000000001 0.99950000000000017 1.8335000000000004 0.71850000000000014 0.88150000000000006 1.0545000000000002 0.65950000000000009 0.90750000000000008 0.9405 1.2005000000000001 0.66250000000000009 0.40350000000000003 1.0515000000000001 0.98850000000000016 0.57250000000000012 0.25750000000000006
decision_type=2 2 2 2 2 2 2 2 2 2 2 2 2 2 2 2 2 2 2 2 2 2 2 2 2 2 2 2 2 2
left_child=1 13 4 5 17 7 8 15 11 -7 25 26 -9 21 -12 18 -8 -3 19 20 -4 22 -1 24 28 -5 -2 -28 -23 -26
right_child=6 2 3 10 -6 9 16 12 -10 -11 14 -13 -14 -15 -16 -17 -18 -19 -20 -21 -22 23 -24 -25 29 -27 27 -29 -30 -31
leaf_value=-0.011566934833923976 -0.0076037017804271778 -0.0021987367202253904 -0.0072792647914452988 0.01073817334004811 0.0048640095910360654 0.0095608038068921482 -0.010433155199374197 0.0069622694475254725 0.0014238740962285263 -0.0030328920377152308 0.011221073038321882 -0.013119807907126167 -0.0050945882707141175 0.0043156435320136745 -0.0058275300926632356 0.0064489478785494164 -0.022817007091009256 -0.012100447721633257 0.014955681542593264 0.017891752577346303 0.0089744708754799576 -0.0033744893197355606 -0.0020453636534512043 -0.017848616698756814 -7.8736732353517172e-05 -0.0036907350877299905 -0.0069978703558444978 0.01337767515967532 0.015773037283919579 -0.0087448907445888124
leaf_weight=300 106 119 33 35 172 108 618 307 208 224 121 198 86 109 45 369 66 204 526 115 418 29 144 32 199 448 30 41 43 147
leaf_count=300 106 119 33 35 172 108 618 307 208 224 121 198 86 109 45 369 66 204 526 115 418 29 144 32 199 448 30 41 43 147
internal_value=0 0.0517226 0.094846 0.124765 -0.0765063 0.163472 -0.16926 0.188935 -0.0949914 0.021277 -0.00561178 -0.163476 0.0864775 -0.0914487 0.131989 0.216496 -0.232562 -0.169049 0.246069 0.196773 0.155703 -0.113122 -0.169577 -0.0574197 -0.0344874 -0.0529032 -0.0528185 0.0953658 0.161217 -0.075212
internal_weight=0 4333 3330 2835 495 2186 1267 1854 583 332 649 375 393 1003 166 1461 684 323 1092 566 451 894 444 450 418 483 177 71 72 346
internal_count=5600 4333 3330 2835 495 2186 1267 1854 583 332 649 375 393 1003 166 1461 684 323 1092 566 451 894 444 450 418 483 177 71 72 346
shrinkage=0.05


Tree=6
num_leaves=31
num_cat=0
split_feature=27 26 24 22 5 5 22 24 27 26 24 26 8 5 24 22 24 22 17 22 22 13 11 22 19 21 27 1 0 27
split_gain=26.5028 27.7361 15.7076 18.1578 6.83286 5.42074 4.71802 4.48142 4.42305 4.13329 3.11584 4.25747 2.96837 4.26296 2.96772 3.48707 2.94747 2.81598 2.76166 3.81027 2.73156 2.78256 3.70389 2.59194 3.09785 2.81554 2.54033 2.51147 2.48809 4.38697
threshold=0.90450000000000019 0.81150000000000011 1.0265000000000002 1.0485000000000004 1.3365000000000002 0.88150000000000006 1.0375000000000003 0.73250000000000004 1.0105000000000002 1.3665 0.73250000000000004 0.76750000000000018 1.6300000000000001 1.7360000000000002 2.3415000000000004 1.0465000000000002 0.79350000000000009 0.78850000000000009 0.61750000000000005 0.74050000000000005 0.74450000000000016 1.1485000000000001 -0.96549999999999991 1.0795000000000001 0.85450000000000015 0.92450000000000021 1.0925000000000002 -0.31449999999999995 0.77750000000000019 0.83850000000000013
decision_type=2 2 2 2 2 2 2 2 2 2 2 2 2 2 2 2 2 2 2 2 2 2 2 2 2 2 2 2 2 2
left_child=1 4 3 7 10 6 28 26 -4 16 18 -12 13 -11 15 20 -5 -9 23 -20 -10 22 -22 24 25 27 -2 -1 -3 -30
right_child=2 5 8 9 -6 -7 -8 17 14 12 11 -13 -14 -15 -16 -17 -18 -19 19 -21 21 -23 -24 -25 -26 -27 -28 -29 29 -31
leaf_value=-5.3015202283859259e-05 0.0027476593300148292 -0.0010238216607117215 0.0040554794185052668 0.009597043862047884 0.011513406193101561 0.0093335719377977671 0.010736586104072101 -0.0058933858984503255 0.0064721297691850109 -0.0095981807581016002 -0.0092748990360601458 -0.00037353107733512992 -0.016905196330377036 0.015233373641967774 -0.011977203355895149 0.0016676841962545718 -0.0010241249576210976 -0.017622077817889464 0.016385505897434136 -0.00036094861105084424 0.0078143164282664657 -0.011078235124930358 -0.0059969712771586522 0.010517828091979028 -0.020746115881663103 0.009677346105928776 -0.014699326806208668 -0.017662832504365504 0.0077206999605352227 -0.0032781228423118592
leaf_weight=40 54 326 394 97 77 989 211 58 51 56 405 201 56 25 72 458 200 435 38 320 64 156 201 20 39 27 34 41 330 125
leaf_count=40 54 326 394 97 77 989 211 58 51 56 405 201 56 25 72 458 200 435 38 320 64 156 201 20 39 27 34 41 330 125
internal_value=0 0.0614559 -0.0774798 -0.17214 -0.0579716 0.134282 0.0820508 -0.287739 -0.00865475 -0.0173856 -0.0775954 -0.126449 -0.161074 -0.0386824 -0.0439513 -0.0288086 0.0488948 -0.324845 -0.021204 0.0283322 -0.0891272 -0.115605 -0.0532283 -0.127395 -0.173348 -0.0861127 -0.0798644 -0.179333 0.0462049 0.0939809
internal_weight=0 3189 2411 1015 1208 1981 992 581 1396 434 1131 606 137 81 1002 930 297 493 525 358 472 421 265 167 147 108 88 81 781 455
internal_count=5600 3189 2411 1015 1208 1981 992 581 1396 434 1131 606 137 81 1002 930 297 493 525 358 472 421 265 167 147 108 88 81 781 455
shrinkage=0.05


Tree=7
num_leaves=31
num_cat=0
split_feature=25 25 26 27 26 25 27 5 0 3 24 5 25 1 24 13 0 9 5 27 3 5 25 18 23 25 24 27 25 25
split_gain=41.8092 23.3374 14.4186 14.6537 8.85459 9.48745 7.26071 6.91116 5.82036 5.15797 5.07147 4.70944 4.06574 4.0421 3.61226 3.52861 4.15061 3.52964 3.49779 3.4066 3.3501 3.13411 3.00405 2.94683 2.75315 2.7128 2.68909 2.66539 2.64987 2.54559
threshold=1.1785000000000003 0.59250000000000014 0.77650000000000008 0.90450000000000019 0.87350000000000017 0.94550000000000012 0.79050000000000009 0.8015000000000001 1.3475000000000004 1.8335000000000004 0.94450000000000012 0.86950000000000016 1.4915 -1.6564999999999996 1.7695000000000003 0.9405 0.90750000000000008 1.0115000000000001 0.88650000000000007 0.91350000000000009 2.6165000000000007 1.0315000000000001 1.0025000000000002 0.68350000000000011 1.1195000000000002 0.6785000000000001 0.73250000000000004 0.95650000000000013 0.52350000000000019 0.96950000000000014
decision_type=2 2 2 2 2 2 2 2 2 2 2 2 2 2 2 2 2 2 2 2 2 2 2 2 2 2 2 2 2 2
left_child=1 15 7 4 5 6 -4 -3 11 12 -10 29 18 -13 21 16 26 27 24 28 -15 -12 25 -19 -2 -6 -1 -18 -17 -5
right_child=9 2 3 8 22 -7 -8 -9 10 -11 14 13 -14 20 -16 19 17 23 -20 -21 -22 -23 -24 -25 -26 -27 -28 -29 -30 -31
leaf_value=-0.0052800325379855394 -0.010350014378919322 -0.0077571691328157961 0.011551620737830205 0.0018532339227563554 0.0030961110226569639 -0.0074977218111356107 -0.0018412519117881514 0.0046502814909746481 -0.015379041738999198 -0.018362454780273967 -0.0049154686991886428 -0.01104358583688736 -0.009708551233061696 0.0083810197476577378 -0.019249390260032986 9.2731600070928606e-05 -0.0029312096908688545 0.00046751735111077628 -0.00035427484163053476 -0.0071423216043291875 -0.011130349273267 0.0078056596735916516 0.0060889845200487085 0.02256609323349866 0.0078981296523757596 0.013978091890262702 -0.01457967729715819 -0.015727837414157633 0.012265276128337497 -0.0073608508706092847
leaf_weight=138 204 323 335 262 62 135 145 172 78 108 93 31 618 506 23 154 240 48 314 111 23 101 185 22 23 751 178 49 63 105
leaf_count=138 204 323 335 262 62 135 145 172 78 108 93 31 618 506 23 154 240 48 314 111 23 101 185 22 23 751 178 49 63 105
internal_value=0 0.0482807 0.088558 0.116054 0.178631 0.0842478 0.150117 -0.0689179 0.033454 -0.158232 -0.088886 0.0723863 -0.138755 0.130087 -0.0102768 -0.0854415 -0.126788 -0.0532178 -0.0754524 -0.000353941 0.150654 0.0341477 0.236793 0.148256 -0.170022 0.262964 -0.210369 -0.102018 0.0725339 -0.015659
internal_weight=0 4333 3330 2835 1613 615 480 495 1222 1267 295 927 1159 560 217 1003 675 359 541 328 529 194 998 70 227 813 316 289 217 367
internal_count=5600 4333 3330 2835 1613 615 480 495 1222 1267 295 927 1159 560 217 1003 675 359 541 328 529 194 998 70 227 813 316 289 217 367
shrinkage=0.05


Tree=8
num_leaves=31
num_cat=0
split_feature=25 25 26 27 26 25 27 5 22 0 3 27 18 25 22 22 22 10 26 9 5 22 20 25 21 15 27 0 13 14
split_gain=37.7328 21.062 13.0128 13.225 7.99126 8.56243 6.55279 6.23732 5.80965 5.25211 4.65507 4.30126 3.82034 3.72769 3.95556 3.47286 4.05241 3.34209 3.33547 3.58487 3.18787 3.0639 2.91386 2.71116 2.63075 3.12427 2.53668 3.90132 3.20458 2.49839
threshold=1.1785000000000003 0.59250000000000014 0.77650000000000008 0.90450000000000019 0.87350000000000017 0.94550000000000012 0.79050000000000009 0.8015000000000001 1.0465000000000002 0.99550000000000016 1.8335000000000004 1.0835000000000001 1.2545000000000002 1.8325000000000002 1.0145000000000002 0.96350000000000013 0.77950000000000019 0.82250000000000012 1.0165000000000004 0.91550000000000009 1.3365000000000002 0.6805000000000001 1.0000000180025095e-35 1.0025000000000002 0.58250000000000013 -1.3984999999999999 0.84050000000000014 0.96350000000000013 1.2365000000000002 0.77350000000000019
decision_type=2 2 2 2 2 2 2 2 2 2 2 2 2 2 2 2 2 2 2 2 2 2 2 2 2 2 2 2 2 2
left_child=1 20 7 4 5 6 -4 -3 9 12 13 15 18 14 21 16 -11 -15 19 -5 26 -2 -18 -6 -23 -26 27 28 -1 -8
right_child=10 2 3 8 23 -7 29 -9 -10 11 -12 -13 -14 17 -16 -17 22 -19 -20 -21 -22 24 -24 -25 25 -27 -28 -29 -30 -31
leaf_value=-0.0083354836160486386 0.010726658932187341 -0.0073693105403114774 0.010974039626655295 -0.011787612070994718 0.012490812515860554 -0.0071228358370286453 -0.0058000874661263968 0.0044177674969961478 0.0053498286580313066 0.0092336991429328909 -0.017444332206138859 -0.014192731151011138 -0.012156840637326242 -0.014256128486587492 -0.00058222088364907258 0.010831490904092789 -0.0033363170681461212 -0.00091072505308409867 0.0075407661628304869 0.0074077295702557238 0.0040143527979150826 0.0035304381750350779 -0.020050858987702265 0.0057845352630357489 0.0043832970685080477 -0.010554423824221164 -0.0087255935764079771 0.0014705406940581716 0.0085585407191707246 0.0088844177871942511
leaf_weight=297 22 323 335 56 813 135 105 172 558 35 108 113 40 229 324 42 62 59 228 43 109 43 45 185 38 444 307 259 31 40
leaf_count=297 22 323 335 56 813 135 105 172 558 35 108 113 40 229 324 42 62 59 228 43 109 43 45 185 38 444 307 259 31 40
internal_value=0 0.0458667 0.0841301 0.110251 0.169699 0.0800354 0.142611 -0.065472 0.0317813 -0.0314268 -0.150321 -0.130291 0.0485802 -0.131818 -0.0992065 -0.0359824 -0.110699 -0.230443 0.0842643 -0.0690048 -0.0811694 -0.151071 -0.207316 0.224953 -0.166392 -0.187535 -0.100855 -0.0623323 -0.134776 -0.0349838
internal_weight=0 4333 3330 2835 1613 615 480 495 1222 664 1267 297 367 1159 871 184 142 288 327 99 1003 547 107 998 525 482 894 587 328 145
internal_count=5600 4333 3330 2835 1613 615 480 495 1222 664 1267 297 367 1159 871 184 142 288 327 99 1003 547 107 998 525 482 894 587 328 145
shrinkage=0.05


Tree=9
num_leaves=31
num_cat=0
split_feature=25 25 26 27 25 26 27 22 5 5 24 22 24 22 24 22 27 21 24 3 27 9 3 2 26 9 2 27 3 25
split_gain=34.3974 23.0275 12.5247 9.82649 6.68324 6.66815 6.28905 5.82891 4.44608 4.40099 3.75186 9.82474 3.69656 3.42688 3.56338 3.40697 4.23418 3.50771 3.24001 2.91282 2.83809 4.28974 3.60352 3.11649 2.98223 2.72908 2.70036 2.69848 2.67674 2.64281
threshold=1.0675000000000001 0.6695000000000001 0.77650000000000008 0.90450000000000019 1.4915 0.87150000000000005 0.78650000000000009 1.0065000000000002 1.3365000000000002 0.8015000000000001 1.0265000000000002 0.99050000000000005 0.82250000000000012 0.78450000000000009 0.74850000000000017 0.87250000000000016 0.88950000000000007 0.72450000000000014 1.0755000000000001 2.0310000000000001 0.83850000000000013 1.2815000000000001 0.41250000000000003 1.1020000000000001 0.74950000000000017 1.3175000000000001 0.90150000000000008 0.99650000000000005 1.8335000000000004 0.94850000000000012
decision_type=2 2 2 2 2 2 2 2 2 2 2 2 2 2 2 2 2 2 2 2 2 2 2 2 2 2 2 2 2 2
left_child=1 8 9 5 7 6 29 15 20 -3 11 13 -13 -5 -15 18 17 -17 -2 25 21 22 -1 26 -24 -12 -22 -10 -6 -4
right_child=4 2 3 10 28 -7 -8 -9 27 -11 19 12 -14 14 -16 16 -18 -19 -20 -21 23 -23 24 -25 -26 -27 -28 -29 -30 -31
leaf_value=0.0053141141044242045 -0.0069393722197184197 -0.0073284688617001065 0.010680120504564711 0.0067946910210277727 -0.0088266013461409266 0.012079695996116191 -0.0033125495469128645 0.0017570180509771619 0.0111138514134773 0.003920483404267444 0.0043222162003013374 0.013788209575064042 0.00029499733022281103 0.002765806913375855 -0.018277667896840179 0.012704155422174013 -0.015722554261925852 -0.0074948474764823915 0.0042363325620556743 -0.0057378422943028537 -0.0064190441121657685 0.012844264280536902 -0.0072522967607188951 -0.016604653273669768 2.8827361631811712e-05 0.012619501773182674 0.0094832033946596339 -0.0027708963569948227 -0.019419993121515624 -0.0024077906211217247
leaf_weight=112 156 238 270 23 618 850 162 350 86 137 407 85 126 25 103 26 158 124 111 55 336 46 367 71 228 131 29 59 66 45
leaf_count=112 156 238 270 23 618 850 162 350 86 137 407 85 126 25 103 26 158 124 111 55 336 46 367 71 228 131 29 59 66 45
internal_value=0 0.0511682 0.104991 0.132823 -0.122028 0.188491 0.0938637 -0.0666069 -0.0560332 -0.064377 0.0554703 -0.0247519 0.114613 -0.219494 -0.283352 -0.12854 -0.200209 -0.0798737 -0.0458659 0.104442 -0.0761938 -0.0390174 -0.0582699 -0.1404 -0.0892444 0.126851 -0.103112 0.109284 -0.196975 0.176208
internal_weight=0 3991 2657 2282 1609 1327 477 925 1334 375 955 362 211 151 128 575 308 150 267 593 1189 753 707 436 595 538 365 145 684 315
internal_count=5600 3991 2657 2282 1609 1327 477 925 1334 375 955 362 211 151 128 575 308 150 267 593 1189 753 707 436 595 538 365 145 684 315
shrinkage=0.05


Tree=10
num_leaves=31
num_cat=0
split_feature=25 25 25 26 27 5 24 27 27 5 5 22 3 15 3 5 21 22 27 19 9 3 17 25 26 27 5 27 24 10
split_gain=29.0842 13.7663 12.0096 9.92607 9.49439 4.82441 4.61737 6.1866 4.53539 4.31226 3.62596 3.4172 3.36996 3.32326 3.12909 3.05429 4.88038 3.18624 2.98549 3.10684 2.89876 2.80541 2.69097 3.07972 2.67174 3.0679 2.66728 3.66735 2.86535 2.61464
threshold=1.2815000000000001 0.67450000000000021 0.98450000000000015 0.77650000000000008 1.0105000000000002 1.5755000000000001 1.2435000000000003 0.89550000000000007 0.84050000000000014 0.70450000000000013 0.82050000000000012 1.0215000000000003 2.0310000000000001 0.45350000000000001 1.2635000000000003 0.8015000000000001 1.0625000000000002 1.0375000000000003 0.90650000000000008 0.61450000000000016 1.5875000000000001 1.8535000000000004 1.5170000000000001 1.5165000000000002 0.94950000000000012 0.97050000000000003 0.84250000000000014 0.90250000000000019 1.1185000000000003 1.1075000000000002
decision_type=2 2 2 2 2 2 2 2 2 2 2 2 2 2 2 2 2 2 2 2 2 2 2 2 2 2 2 2 2 2
left_child=1 5 3 10 15 8 7 29 9 -1 -3 26 20 -12 -11 16 17 18 -5 -20 -6 22 23 -8 -13 -26 -4 -28 -29 -2
right_child=6 2 11 4 12 -7 21 -9 -10 14 13 24 -14 -15 -16 -17 -18 -19 19 -21 -22 -23 -24 -25 25 -27 27 28 -30 -31
leaf_value=-0.0045817814125683892 -0.001576742278205024 -0.0062967916352177095 -0.0071604155772945644 0.0076013344163259784 0.00077842980702296503 0.008989699876734189 0.0049560503562291469 -0.012844784108419266 -0.0073131787044734796 0.0048556728813892759 0.011804989625268908 -0.0058370958331605081 -0.010108496633268172 -0.0057628229922718479 -0.0073608311395796516 0.010766166503585521 -0.005574393444336378 0.01561814546585083 -0.01372067795859443 0.0098048850246097736 0.012969887708978995 -0.013617834231505791 0.0088390139738718666 -0.0076807615050563105 0.013243567869067191 0.0014346697452393446 0.0051752226932948791 -0.013992172266755785 -0.00050415125631150749 -0.019636908783154054
leaf_weight=418 225 221 281 353 377 84 75 504 464 312 67 71 62 45 63 840 78 105 36 23 56 48 60 135 80 176 151 63 105 22
leaf_count=418 225 221 281 353 377 84 75 504 464 312 67 71 62 45 63 840 78 105 36 23 56 48 60 135 80 176 151 63 105 22
internal_value=0 0.0327829 0.0685209 0.107791 0.135301 -0.0522316 -0.150591 -0.193357 -0.0677369 -0.0217893 -0.0516507 -0.0273464 0.015881 0.0949299 0.056066 0.176495 0.121679 0.156857 0.117225 -0.0909939 0.0471031 -0.0495921 -0.0099895 -0.0633523 0.0548962 0.102499 -0.0721687 -0.00959148 -0.111243 -0.0637068
internal_weight=0 4531 3190 2263 1930 1341 1069 751 1257 793 333 927 495 112 375 1435 595 517 412 59 433 318 270 210 327 256 600 319 168 247
internal_count=5600 4531 3190 2263 1930 1341 1069 751 1257 793 333 927 495 112 375 1435 595 517 412 59 433 318 270 210 327 256 600 319 168 247
shrinkage=0.05


Tree=11
num_leaves=31
num_cat=0
split_feature=25 25 25 26 27 5 24 27 24 5 14 13 9 3 15 26 25 3 5 27 26 9 3 11 27 26 27 24 15 3
split_gain=26.2485 12.4241 10.8386 8.95827 8.56868 4.40571 4.16717 5.5834 3.54996 3.27243 5.04118 3.05694 3.05254 3.04139 2.99924 2.84313 2.83604 2.72097 2.7164 2.65351 3.81124 2.61613 2.59509 2.56392 2.52113 2.44188 2.38108 2.37802 2.35748 2.63127
threshold=1.2815000000000001 0.67450000000000021 0.98450000000000015 0.77650000000000008 1.0105000000000002 1.3365000000000002 1.2435000000000003 0.89550000000000007 0.73950000000000016 0.82050000000000012 0.77350000000000019 1.0675000000000001 0.91050000000000009 2.0310000000000001 0.45350000000000001 0.85350000000000015 0.85550000000000004 1.7935000000000003 1.0675000000000001 0.96650000000000014 0.94150000000000011 1.5875000000000001 1.2105000000000001 -0.5724999999999999 0.78650000000000009 1.2240000000000002 0.85950000000000015 1.3095000000000003 -0.93649999999999989 0.42050000000000004
decision_type=2 2 2 2 2 2 2 2 2 2 2 2 2 2 2 2 2 2 2 2 2 2 2 2 2 2 2 2 2 2
left_child=1 5 3 9 15 8 7 23 28 10 -3 12 18 21 -11 16 -5 -13 -4 20 -14 -6 -8 -2 -18 -20 -17 -21 -1 -30
right_child=6 2 11 4 13 -7 22 -9 -10 14 -12 17 19 -15 -16 26 24 -19 25 27 -22 -23 -24 -25 -26 -27 -28 -29 29 -31
leaf_value=-0.00619431297079875 -0.011825687750693292 -0.0099597035977192702 -0.0095447166617644037 0.007427390830384361 0.00073950836924089995 0.005534543283283711 0.001599283234940635 -0.012202544953851473 -0.0054693277260022509 0.011214740262992347 0.0083545297694702942 0.0035838331730087846 -0.0036660614361365635 -0.0096030717895876985 -0.0054746818542480468 0.011591018929914317 0.0025770613591964931 -0.013860374937454858 0.0054572700139354259 -0.0109677732435625 0.013507089827741896 0.01232139321842364 -0.0075141994417577546 -7.7013155898532354e-05 -0.014442246863918921 -0.01281740063428879 0.00686737794152514 0.0033605762264307809 0.012424638704820114 0.00032737763310835617
leaf_weight=104 62 173 236 234 377 152 180 504 784 67 48 326 60 62 45 639 73 24 68 67 70 56 138 185 31 25 458 51 55 246
leaf_count=104 62 173 236 234 377 152 180 504 784 67 48 326 60 62 45 639 73 24 68 67 70 56 138 185 31 25 458 51 55 246
internal_value=0 0.0311437 0.0650949 0.102402 0.128536 -0.04962 -0.143061 -0.183689 -0.0701139 -0.0490681 -0.119639 -0.0259791 -0.0707041 0.015087 0.0901834 0.16767 0.0874808 0.0477532 -0.133854 0.0130711 0.11162 0.0447479 -0.0471125 -0.0605215 -0.04992 0.0108945 0.192378 -0.0955002 0.0059102 0.0507568
internal_weight=0 4531 3190 2263 1930 1341 1069 751 1189 333 221 927 577 495 112 1435 338 350 329 248 130 433 318 247 104 93 1097 118 405 301
internal_count=5600 4531 3190 2263 1930 1341 1069 751 1189 333 221 927 577 495 112 1435 338 350 329 248 130 433 318 247 104 93 1097 118 405 301
shrinkage=0.05


Tree=12
num_leaves=31
num_cat=0
split_feature=25 25 25 26 27 5 27 5 24 27 22 22 0 3 0 5 21 3 5 21 22 27 19 18 5 3 17 25 21 26
split_gain=23.6892 11.2127 9.78187 8.08484 7.73324 4.04313 3.98904 3.80827 3.76087 5.03902 2.99997 2.96507 2.92314 2.77554 2.75096 3.1296 4.75877 2.95736 2.72141 4.37642 2.84621 2.65609 2.79647 2.56326 2.51087 2.40996 2.44526 2.75076 2.40767 2.36204
threshold=1.2815000000000001 0.67450000000000021 0.98450000000000015 0.77650000000000008 1.0105000000000002 1.5755000000000001 0.84050000000000014 0.70450000000000013 1.2435000000000003 0.89550000000000007 1.0215000000000003 0.99050000000000005 1.2695000000000003 1.2635000000000003 1.7985000000000004 1.1275000000000002 0.93950000000000011 2.0015000000000005 0.8015000000000001 1.0625000000000002 1.0375000000000003 0.90650000000000008 0.61450000000000016 0.058500000000000003 0.82050000000000012 1.8535000000000004 1.5170000000000001 1.5165000000000002 1.0925000000000002 0.94950000000000012
decision_type=2 2 2 2 2 2 2 2 2 2 2 2 2 2 2 2 2 2 2 2 2 2 2 2 2 2 2 2 2 2
left_child=1 5 3 11 18 6 7 12 9 28 -4 24 -1 -9 15 16 -6 -17 19 20 21 -5 -23 -8 -3 26 27 -10 -2 -12
right_child=8 2 10 4 14 -7 23 13 25 -11 29 -13 -14 -15 -16 17 -18 -19 -20 -21 -22 22 -24 -25 -26 -27 -28 -29 -30 -31
leaf_value=-0.0064461602197017206 -0.0045679782243335954 -0.008774746105526433 -0.0033338509599367783 0.0068112136664201448 0.0056046311295669497 0.0082634876881326948 -0.010417448643674242 0.0046790684453952005 0.0047315697868665066 -0.011592417674523499 -0.0054502827390818529 0.0046217187529518497 0.0035687439460703667 -0.0068266067476499652 -0.0086238374385763632 0.010915540813496619 -0.0078217223398667542 -0.0062456757310898076 0.0097969080667410571 -0.0056628080323720591 0.014391521655377888 -0.01335075009200308 0.0089688367817712857 -0.0029842861289540758 0.002959006622670189 -0.012561232907076678 0.0084993692239125583 -0.0072112947812786807 0.011517504373422036 0.0048568563186563553
leaf_weight=324 221 165 600 353 131 84 235 312 75 504 71 105 94 63 68 132 133 31 840 78 105 36 23 229 63 48 60 135 26 256
leaf_count=324 221 165 600 353 131 84 235 312 75 504 71 105 94 63 68 132 133 31 840 78 105 36 23 229 63 48 60 135 26 256
internal_value=0 0.0295865 0.0618401 0.0972817 0.122109 -0.047139 -0.0613334 -0.0182421 -0.135908 -0.174505 -0.0246802 -0.0466147 -0.0838801 0.0549223 0.0143326 0.0440821 -0.0231881 0.153035 0.159287 0.107544 0.140856 0.103399 -0.0929979 -0.134979 -0.11065 -0.0447569 -0.00805147 -0.0589197 -0.0574954 0.0523783
internal_weight=0 4531 3190 2263 1930 1341 1257 793 1069 751 927 333 418 375 495 427 264 163 1435 595 517 412 59 464 228 318 270 210 247 327
internal_count=5600 4531 3190 2263 1930 1341 1257 793 1069 751 927 333 418 375 495 427 264 163 1435 595 517 412 59 464 228 318 270 210 247 327
shrinkage=0.05


Tree=13
num_leaves=31
num_cat=0
split_feature=25 25 25 26 21 5 5 24 26 3 13 24 13 19 5 14 15 21 14 9 21 20 23 3 3 15 22 22 0 21
split_gain=21.3795 10.1195 8.82813 7.29657 4.80928 4.83265 3.67932 3.39419 4.39013 3.17769 4.23221 3.07547 2.72846 2.91754 2.69081 4.49541 2.70926 2.65326 2.52026 2.5568 2.96562 2.60209 2.23413 2.88867 2.21803 2.18993 2.16145 2.24076 2.15861 2.14486
threshold=1.2815000000000001 0.67450000000000021 0.98450000000000015 0.77650000000000008 1.0715000000000001 0.79050000000000009 1.3365000000000002 1.2435000000000003 1.0095000000000003 1.5555000000000001 0.65950000000000009 0.73950000000000016 1.4305000000000001 0.41450000000000004 0.82050000000000012 0.77350000000000019 0.45350000000000001 1.0925000000000002 1.2445000000000002 0.91050000000000009 1.5230000000000001 2.3265000000000002 1.0795000000000001 1.8535000000000004 1.2105000000000001 0.58250000000000013 1.1735000000000004 0.87650000000000006 1.3285000000000002 0.90950000000000009
decision_type=2 2 2 2 2 2 2 2 2 2 2 2 2 2 2 2 2 2 2 2 2 2 2 2 2 2 2 2 2 2
left_child=1 6 3 14 9 -6 11 8 17 28 -11 -1 18 -14 15 -3 -16 -2 19 20 -4 -21 23 -7 -9 -20 27 -26 -5 -13
right_child=7 2 12 4 5 22 -8 24 -10 10 -12 29 13 -15 16 -17 -18 -19 25 21 -22 -23 -24 -25 26 -27 -28 -29 -30 -31
leaf_value=0.00036253757314917484 -0.0042677394810475798 -0.0091701103686597316 -0.0051676004926363636 0.0090885925360368307 -0.0080890628996245356 0.004270508239421939 0.0050859097587434877 0.0015303643296162288 -0.010710138049143465 0.012669187906335611 -0.0028361826946463765 -0.007351770626235119 -0.001194531140448172 0.013231218618059915 0.010472550365462234 0.0081243569031357772 -0.0053895418842633573 0.013059610188007354 -0.016809213278340361 0.0044120854127063678 0.013328893741835719 -0.0063528193390532716 0.013665168101970965 -0.012861094357711928 -0.00099500700047141632 0.0027123310416936877 0.0036379412644439273 -0.016323024965822698 0.0042744919312316066 -0.0020910111580576215
leaf_weight=405 190 173 375 1017 109 203 152 180 536 61 158 434 79 63 67 48 45 25 51 243 23 73 52 28 38 20 36 64 302 350
leaf_count=405 190 173 375 1017 109 203 152 180 536 61 158 434 79 63 67 48 45 25 51 243 23 73 52 28 38 20 36 64 302 350
internal_value=0 0.0281072 0.0587481 0.0924176 0.116004 0.0171267 -0.044782 -0.129113 -0.165779 0.141205 0.0296533 -0.0635104 -0.0234462 0.104113 -0.044284 -0.108277 0.0819878 -0.0450586 -0.0465205 -0.0286528 -0.0819742 0.0385051 0.0860347 0.043879 -0.042519 -0.226204 -0.137901 -0.212252 0.159727 -0.100064
internal_weight=0 4531 3190 2263 1930 392 1341 1069 751 1538 219 1189 927 142 333 221 112 215 785 714 398 316 283 231 318 71 138 102 1319 784
internal_count=5600 4531 3190 2263 1930 392 1341 1069 751 1538 219 1189 927 142 333 221 112 215 785 714 398 316 283 231 318 71 138 102 1319 784
shrinkage=0.05


Tree=14
num_leaves=31
num_cat=0
split_feature=25 25 25 26 27 24 24 27 22 22 26 22 22 25 13 0 15 0 11 25 3 26 9 14 21 19 14 26 3 17
split_gain=19.295 9.13285 7.96739 6.58515 6.71832 3.20298 3.06326 4.23948 2.67746 2.60147 2.57782 2.54582 2.50047 2.49749 2.48665 2.45427 2.44451 2.29717 2.28975 2.28649 2.23541 2.21875 2.16215 2.83706 2.7616 2.15894 2.11066 2.05532 2.0547 2.23394
threshold=1.2815000000000001 0.67450000000000021 0.98450000000000015 0.77650000000000008 1.0105000000000002 0.73950000000000016 1.2435000000000003 0.89550000000000007 1.0865000000000002 0.99050000000000005 0.85850000000000015 1.0215000000000003 0.72750000000000015 0.83950000000000014 0.96550000000000014 1.7985000000000004 -0.9474999999999999 1.2435000000000003 -0.5724999999999999 0.7955000000000001 2.1315000000000004 0.75350000000000017 1.2545000000000002 0.3775 1.6305000000000003 -0.82099999999999984 0.7360000000000001 0.94350000000000012 1.8535000000000004 1.5170000000000001
decision_type=2 2 2 2 2 2 2 2 2 2 2 2 2 2 2 2 2 2 2 2 2 2 2 2 2 2 2 2 2 2
left_child=1 5 3 9 10 8 7 18 12 26 13 -4 -1 -5 -7 20 -14 -15 -2 27 -6 -11 23 -13 -24 -20 -3 -12 29 -8
right_child=6 2 11 4 15 14 28 -9 -10 21 19 22 16 17 -16 -17 -18 -19 25 -21 -22 -23 24 -25 -26 -27 -28 -29 -30 -31
leaf_value=0.0084439272992312912 -0.010824081157484363 -0.0077500117250851224 -0.0030480745012561481 0.0067566864634469401 0.0031949021986552649 -0.0057378519697092838 -0.002756075951315108 -0.010504419507370109 0.0093544958070630128 0.0087916639137577707 0.0081066541752572788 0.0039856258076387688 -0.0099964909538438063 0.0017908263951539995 -0.00012666106324743583 -0.0083350317004848937 0.00022696534130308365 -0.013716462542933803 -0.0087199315124628501 0.0099196606252940842 -0.0081556927792879996 -0.0076442798333508635 0.013891721065615266 -0.0076355814933776857 -0.0042017125586668652 0.0035208350814440676 0.0036390886554178202 -0.00047885459402333141 -0.011551817537595828 0.0081835570683081952
leaf_weight=64 62 175 600 236 378 593 210 504 84 77 177 143 79 104 296 68 225 31 49 772 49 28 71 83 30 136 53 115 48 60
leaf_count=64 62 175 600 236 378 593 210 504 84 77 177 143 79 104 296 68 225 31 49 772 49 28 71 83 30 136 53 115 48 60
internal_value=0 0.0267018 0.0558107 0.0877967 0.110204 -0.0425429 -0.122657 -0.15749 0.0259971 -0.0420698 0.144856 -0.0222738 -0.0107741 0.0730789 -0.0773912 0.00974796 -0.0485958 -0.0354021 -0.0501649 0.169883 0.0378475 0.0881749 0.0487127 -0.00564679 0.170349 0.00557372 -0.102051 0.0945075 -0.0403931 -0.00650093
internal_weight=0 4531 3190 2263 1930 1341 1069 751 452 333 1435 927 368 371 889 495 304 135 247 1064 427 105 327 226 101 185 228 292 318 270
internal_count=5600 4531 3190 2263 1930 1341 1069 751 452 333 1435 927 368 371 889 495 304 135 247 1064 427 105 327 226 101 185 228 292 318 270
shrinkage=0.05


Tree=15
num_leaves=31
num_cat=0
split_feature=25 25 5 27 22 27 0 6 9 13 25 5 3 27 25 25 24 5 21 3 5 24 21 22 25 22 9 19 4 5
split_gain=18.0797 10.1594 9.00567 5.92817 4.74323 5.01317 4.52707 4.02079 3.69175 3.52727 3.46553 3.38632 3.36027 2.54383 2.52415 2.39982 2.43455 2.35034 2.4218 2.28125 2.56003 2.27359 2.18662 3.98354 2.87011 2.60795 2.13605 2.25897 1.97033 2.3153
threshold=1.0675000000000001 0.59250000000000014 0.88150000000000006 0.90450000000000019 1.0285000000000004 1.0285000000000004 1.7305000000000004 1.1705000000000003 1.2475000000000003 0.9405 1.9785000000000004 1.3155000000000001 1.9205000000000003 0.91350000000000009 0.94850000000000012 1.6175000000000004 0.97750000000000015 1.2185000000000004 1.0095000000000003 1.7785000000000004 1.6690000000000003 1.1005000000000003 1.0715000000000001 1.0705000000000002 0.75550000000000006 0.75250000000000006 1.1275000000000002 0.96950000000000014 0.08900000000000001 1.0525000000000002
decision_type=2 2 2 2 2 2 2 2 2 2 2 2 2 2 2 2 2 2 2 2 2 2 2 2 2 2 2 2 2 2
left_child=1 9 8 -4 5 11 12 -8 14 26 19 15 17 -11 22 16 -2 18 -5 20 -6 -7 23 24 25 -3 28 -28 29 -1
right_child=4 2 3 6 10 21 7 -9 -10 13 -12 -13 -14 -15 -16 -17 -18 -19 -20 -21 -22 -23 -24 -25 -26 -27 27 -29 -30 -31
leaf_value=-0.0045018119345731841 -0.006295603234320879 0.0056774338576155653 0.009143160592764616 0.0073976715857332403 0.00084143979595853154 -0.015178641378879549 -0.010658513865572343 0.014030237942934037 0.0080964534032729376 0.0055078465990798997 -0.0087861487434970006 0.0058812173828482629 -0.0047543115453955566 -0.0038021515612885106 -0.0045669477787755788 -0.011423386570786228 0.0011686432260003957 0.010275994531992006 -0.002420540140675647 -0.00999224732319514 0.012975582936588598 -0.0072389322182824546 -0.0043238798658291021 0.0098745093972825299 0.0030554878948419496 -0.0050595071783168712 0.0081568376695523494 -0.0092139409096152688 -0.0086040966914615775 0.0081146198723997393
leaf_weight=271 288 71 800 143 385 175 94 20 155 194 108 80 81 118 252 119 176 205 112 42 49 186 167 134 491 278 61 27 276 42
leaf_count=271 288 71 800 143 385 175 94 20 155 194 108 80 81 118 252 119 176 205 112 42 49 186 167 134 491 278 61 27 276 42
internal_value=0 0.0396704 0.0686211 0.125106 -0.0859187 -0.126934 0.0545634 -0.126543 0.0155294 -0.0482356 -0.0140007 -0.0753043 0.0927263 0.0397352 -0.000760591 -0.101778 -0.0692867 0.125798 0.0617072 0.0226926 0.0442285 -0.221756 0.0192444 0.0373713 0.0118286 -0.057504 -0.0887775 0.0565433 -0.110489 -0.0561774
internal_weight=0 3992 3003 1455 1608 1024 655 114 1548 989 584 663 541 312 1393 583 464 460 255 476 434 361 1141 974 840 349 677 88 589 313
internal_count=5600 3992 3003 1455 1608 1024 655 114 1548 989 584 663 541 312 1393 583 464 460 255 476 434 361 1141 974 840 349 677 88 589 313
shrinkage=0.05


Tree=16
num_leaves=31
num_cat=0
split_feature=25 26 27 5 22 24 22 27 5 25 26 27 24 25 24 22 21 5 12 22 25 7 4 4 9 21 24 10 27 13
split_gain=16.317 12.3631 12.3439 4.71587 4.62908 10.5495 4.28076 4.52438 3.68151 3.12764 3.11009 5.50198 3.08888 2.71106 2.68391 2.71584 2.46403 2.61165 2.40649 2.2502 2.23728 2.22988 2.20722 2.10729 2.17843 2.07614 2.05192 2.01581 1.94739 1.91176
threshold=1.0675000000000001 0.79050000000000009 0.90450000000000019 0.88150000000000006 1.0605000000000002 1.0475000000000001 1.0285000000000004 1.0285000000000004 1.3445000000000003 1.9785000000000004 0.89450000000000018 0.82250000000000012 1.2435000000000003 0.85850000000000015 0.73550000000000015 1.0865000000000002 0.62050000000000016 1.4930000000000001 1.6610000000000003 0.73150000000000015 0.62350000000000005 -1.5754999999999997 0.89550000000000007 -0.28949999999999992 0.63650000000000018 1.0675000000000001 1.1005000000000003 -1.4604999999999999 0.99350000000000016 1.3685000000000003
decision_type=2 2 2 2 2 2 2 2 2 2 2 2 2 2 2 2 2 2 2 2 2 2 2 2 2 2 2 2 2 2
left_child=1 8 3 10 5 -4 7 12 14 21 11 13 16 27 15 18 -2 -18 19 -1 -7 -8 -15 24 -20 -12 -9 -3 -6 -16
right_child=6 2 4 -5 28 20 9 26 -10 -11 25 -13 -14 22 29 -17 17 -19 23 -21 -22 -23 -24 -25 -26 -27 -28 -29 -30 -31
leaf_value=0.010730134123979614 0.0038163080595541698 -0.0077154212023900909 -0.010532353494000172 0.0093530222044262319 0.0086802336917473719 -0.0043322055711658728 -0.014851647970222294 -0.014419709273747036 0.0078828218736146632 -0.0083468413601319007 0.0087129695726944536 -0.0093132834612708725 0.0044268262444757947 -0.0064958295503328017 -0.0069031895722919739 0.0085565744913541353 -0.0070423445187809616 0.010979118943214418 0.010332375824451448 -0.0016311036946717651 0.003876703977584839 0.0018131075422842425 0.010382723450660707 -0.013593650025290414 -0.0083092799853710913 -0.0032109887134738088 -0.0068769855204448907 0.0077090346935524872 0.001711369394303457 0.007570471800863743
leaf_weight=43 69 23 271 756 130 109 21 175 76 108 333 97 102 86 462 65 471 21 25 256 348 455 25 74 42 41 186 268 438 24
leaf_count=43 69 23 271 756 130 109 21 175 76 108 333 97 102 86 462 65 471 21 25 256 348 455 25 74 42 41 186 268 438 24
internal_value=0 0.0376868 0.0712983 0.129242 -0.00153357 -0.0543238 -0.0816228 -0.120588 -0.0544534 -0.0133007 0.0791724 0.0274992 -0.0715391 0.0790793 -0.0707201 -0.0196673 -0.100644 -0.125463 -0.0478535 0.00293199 0.0383756 0.021558 -0.0538871 -0.155548 -0.0270688 0.148116 -0.210669 0.129798 0.0661271 -0.123769
internal_weight=0 3992 2925 1629 1296 728 1608 1024 1067 584 873 499 663 402 991 505 561 492 440 299 457 476 111 141 67 374 361 291 568 486
internal_count=5600 3992 2925 1629 1296 728 1608 1024 1067 584 873 499 663 402 991 505 561 492 440 299 457 476 111 141 67 374 361 291 568 486
shrinkage=0.05


Tree=17
num_leaves=31
num_cat=0
split_feature=27 26 24 5 0 5 17 3 5 0 24 3 12 21 26 27 17 27 24 10 23 3 11 9 5 5 3 4 13 27
split_gain=12.5555 13.474 7.97628 4.42049 4.18742 3.87396 3.72728 3.44921 3.28976 3.15794 3.10968 3.06467 2.94242 2.80245 2.61374 3.59021 2.62992 2.61215 2.22593 2.21733 2.216 2.20664 2.95421 1.89058 1.90769 1.87172 2.33692 1.84467 2.29305 3.47631
threshold=0.90450000000000019 0.81150000000000011 1.0265000000000002 0.88150000000000006 1.2935000000000003 1.9180000000000001 1.5285000000000004 2.0015000000000005 1.1425000000000003 1.9755 0.78250000000000008 1.7675000000000003 1.0000000180025095e-35 0.70050000000000001 0.88650000000000007 0.82250000000000012 0.44550000000000006 1.0855000000000001 1.4775000000000003 -1.4604999999999999 1.1075000000000002 0.42050000000000004 0.087500000000000008 0.79050000000000009 0.93850000000000011 1.0675000000000001 1.1755000000000002 -0.30049999999999993 0.93650000000000011 0.72450000000000014
decision_type=2 2 2 2 2 2 2 2 2 2 2 2 2 2 2 2 2 2 2 2 2 2 2 2 2 2 2 2 2 2
left_child=1 6 4 14 5 10 12 8 -4 13 11 -2 21 -10 15 19 -16 -9 -11 -3 23 22 -1 24 -12 -23 -27 -14 -29 -30
right_child=2 3 7 -5 -6 -7 -8 17 9 18 20 -13 27 -15 16 -17 -18 -19 -20 -21 -22 25 -24 -25 -26 26 -28 28 29 -31
leaf_value=0.013620622254024118 0.0033806973054439208 -0.012279334377783996 -0.0013701040963521596 0.0071480074524879452 -0.011194475870715441 0.010784111171960832 0.0087451097408407629 0.002564471686372952 -0.0062805845065319792 0.0016742518719504861 -0.0074222362176938495 -0.014847227158369843 -0.0021302931933175951 0.0066144070695600583 -0.0070207218216224157 -0.0095422434395757219 0.0057177470502210786 -0.011315015364776958 -0.017555301001778358 0.002883178713810013 0.0018849019194021822 -0.0031641024549346457 -0.0017767912510669595 -0.00982221964427403 0.0064158194512128827 0.011362140640324238 -0.0081343827599828899 -0.011350091815931012 0.0070233819436053835 -0.014370787239843801
leaf_weight=59 158 26 733 980 274 42 76 49 47 34 66 27 210 407 44 87 512 110 27 332 64 436 66 350 40 51 22 191 49 31
leaf_count=59 158 26 733 980 274 42 76 49 47 34 66 27 210 407 44 87 512 110 27 332 64 436 66 350 40 51 22 191 49 31
internal_value=0 0.0446832 -0.0508643 0.0952186 -0.118148 -0.079362 -0.0393726 -0.00203939 0.0156334 0.0768857 -0.0969391 0.0144081 -0.0539779 0.105589 0.0484786 -0.00863922 0.0941933 -0.140754 -0.136744 0.0356398 -0.136553 -0.00923304 0.109816 -0.161009 -0.0440066 -0.038469 0.10973 -0.112955 -0.16747 -0.0253372
internal_weight=0 3172 2428 1981 1021 747 1191 1407 1248 515 705 185 1115 454 1001 445 556 159 61 358 520 634 125 456 106 509 73 481 271 80
internal_count=5600 3172 2428 1981 1021 747 1191 1407 1248 515 705 185 1115 454 1001 445 556 159 61 358 520 634 125 456 106 509 73 481 271 80
shrinkage=0.05


Tree=18
num_leaves=31
num_cat=0
split_feature=25 26 27 25 22 27 5 8 5 25 24 5 22 24 5 9 26 25 24 23 22 9 25 24 27 25 26 9 17 22
split_gain=14.5072 10.525 10.3874 4.78428 3.88439 3.5269 3.16879 3.13052 3.03261 2.9741 2.83833 2.83763 2.67432 4.06079 2.65003 2.49232 2.36547 2.70862 2.34719 2.61969 2.43328 2.30203 2.43598 2.238 2.22859 3.72364 2.34505 2.26552 2.0915 3.60172
threshold=1.0675000000000001 0.79050000000000009 0.85950000000000015 0.76150000000000007 1.0265000000000002 1.0285000000000004 1.3445000000000003 1.6300000000000001 0.88150000000000006 1.5875000000000001 1.2435000000000003 0.71650000000000014 1.0085000000000004 1.0405000000000002 1.8805000000000003 0.89650000000000007 0.86550000000000005 0.85850000000000015 0.73550000000000015 1.1465000000000003 1.0705000000000002 0.69350000000000012 0.59750000000000003 1.2355000000000003 1.0105000000000002 0.91350000000000009 0.94950000000000012 0.66050000000000009 0.64450000000000018 0.73150000000000015
decision_type=2 2 2 2 2 2 2 2 2 2 2 2 2 2 2 2 2 2 2 2 2 2 2 2 2 2 2 2 2 2
left_child=1 6 8 12 5 10 18 14 15 -6 -2 -9 13 -4 24 16 17 21 20 -20 28 22 -3 -14 26 -26 -5 -28 -1 -30
right_child=4 2 3 7 9 -7 -8 11 -10 -11 -12 -13 23 -15 -16 -17 -18 -19 19 -21 -22 -23 -24 -25 25 -27 27 -29 29 -31
leaf_value=-0.0071770450452695025 -0.0049626708323925687 -0.0058823300332858652 -0.012112583857158136 -0.0049895622346499205 0.002230681940996447 -0.0097305470508854616 0.0073583847990161492 -0.0026008956233660382 0.0092616277782856925 -0.0050368711609264901 0.0041070939132980275 0.0081703613171764736 0.0034696626154732367 -0.0010516950534176582 0.0099475996540142955 0.008527629217322993 0.0058577298549777369 -0.010002325382083656 -0.007345490722820678 0.0025538168475031857 0.0069776167711579663 -0.0053975060123663682 0.011061292754698403 -0.0062219004853662245 0.0018301550896113157 -0.010233620440959931 0.018989997826240682 0.0032727308277236788 0.016548165480295817 -0.0018106497946332714
leaf_weight=148 559 29 145 73 358 357 76 75 595 232 102 331 211 194 65 245 236 64 406 80 83 65 79 83 131 125 27 152 30 244
leaf_count=148 559 29 145 73 358 357 76 75 595 232 102 331 211 194 65 245 236 64 406 80 83 65 79 83 131 125 27 152 30 244
internal_value=0 0.0353969 0.0664094 0.012627 -0.0771018 -0.114519 -0.0496184 0.0564333 0.132439 -0.0125414 -0.071262 0.123612 -0.0551239 -0.115655 0.00883381 0.0886897 0.0462872 -0.0242812 -0.0647099 -0.11432 -0.0169669 0.0407418 0.130232 0.0146722 -0.0154923 -0.0812072 0.0512656 0.11287 -0.0477515 0.00398879
internal_weight=0 3992 2925 1612 1608 1018 1067 979 1313 590 661 406 633 339 573 718 473 237 991 486 505 173 108 294 508 256 252 179 422 274
internal_count=5600 3992 2925 1612 1608 1018 1067 979 1313 590 661 406 633 339 573 718 473 237 991 486 505 173 108 294 508 256 252 179 422 274
shrinkage=0.05


Tree=19
num_leaves=31
num_cat=0
split_feature=25 26 27 22 24 25 9 24 13 24 19 13 3 22 22 26 27 24 27 25 4 3 1 9 9 23 25 22 17 22
split_gain=13.1489 8.10725 9.40602 5.02662 9.50235 3.03226 3.96361 3.01357 3.24602 2.7362 2.55953 2.53925 2.53614 2.51219 3.1777 2.31792 3.08531 2.23006 2.61019 3.20827 2.47552 2.71664 2.0885 2.02994 2.04265 2.03872 1.9955 1.9609 2.04626 2.11918
threshold=1.2450000000000003 0.8055000000000001 0.90450000000000019 1.0485000000000004 1.0755000000000001 1.0835000000000001 0.99050000000000005 0.73550000000000015 1.3685000000000003 2.1485000000000007 0.78450000000000009 1.0475000000000001 1.8535000000000004 0.6805000000000001 1.0145000000000002 0.86550000000000005 0.85050000000000014 0.96550000000000014 0.72950000000000015 0.78850000000000009 -0.26349999999999996 1.1625000000000003 -1.4484999999999999 1.1035000000000001 0.76650000000000007 1.0025000000000002 0.7955000000000001 1.0865000000000002 0.46450000000000008 0.73150000000000015
decision_type=2 2 2 2 2 2 2 2 2 2 2 2 2 2 2 2 2 2 2 2 2 2 2 2 2 2 2 2 2 2
left_child=1 7 5 4 -4 15 -7 10 17 23 27 -12 13 -2 -15 16 -3 18 22 20 21 -20 -9 24 -5 -26 -17 28 -1 -30
right_child=12 2 3 9 -6 6 -8 8 -10 -11 11 -13 -14 14 -16 26 -18 -19 19 -21 -22 -23 -24 -25 25 -27 -28 -29 29 -31
leaf_value=-0.0090139677704766732 0.012373109421004421 0.0041815982592676116 -0.0092995233212908104 0.0051539935257243017 0.0015092627082056212 -0.0065857370291744271 0.010610444812724988 -0.017976747064486796 0.0080727996027216004 -0.015242216214537621 -0.0075641276882895351 0.0076586008071899414 -0.012545059716447871 -0.006622298925967743 -0.00089084748827402869 0.0043111599197513178 -0.010160597504639044 0.0020433075180867825 0.0068283335698975465 -0.02279465013080173 -0.012883116058932926 -0.012596170057853063 -0.002226703770218357 0.0067063698006423929 -0.0053238688999374447 0.0055279093687651592 0.0087521865392473086 0.011054976612834609 0.01352091527138001 0.0010344192498561108
leaf_weight=43 23 439 336 174 515 111 48 23 47 20 141 34 94 607 402 399 41 82 45 45 103 30 248 287 149 61 691 59 39 264
leaf_count=43 23 439 336 174 515 111 48 23 47 20 141 34 94 607 402 399 41 82 45 45 103 30 248 287 149 61 691 59 39 264
internal_value=0 0.0272483 0.0530638 -0.00371913 -0.0551673 0.103705 -0.0278887 -0.0429451 -0.0912374 0.0596418 0.00892744 -0.0921314 -0.0936503 -0.079327 -0.0867761 0.117032 0.0591307 -0.111856 -0.137207 -0.217339 -0.15703 -0.0188294 -0.0712685 0.0705058 0.0229553 -0.0434337 0.142531 0.0525948 0.0238614 0.0528318
internal_weight=0 4474 3271 1542 851 1729 159 1203 623 691 580 175 1126 1032 1009 1570 480 576 494 223 178 75 271 671 384 210 1090 405 346 303
internal_count=5600 4474 3271 1542 851 1729 159 1203 623 691 580 175 1126 1032 1009 1570 480 576 494 223 178 75 271 671 384 210 1090 405 346 303
shrinkage=0.05


end of trees

feature importances:
26=81
28=69
6=60
25=60
23=59
27=52
4=42
10=30
1=24
22=22
14=18
20=11
18=10
16=9
15=7
24=7
3=6
5=5
11=5
2=4
7=4
12=4
9=3
19=3
13=2
21=2
8=1

parameters:
[boosting: gbdt]
[objective: regression]
[metric: l2,l1]
[tree_learner: serial]
[device_type: cpu]
[data: ]
[valid: ]
[num_iterations: 100]
[learning_rate: 0.05]
[num_leaves: 31]
[num_threads: 0]
[max_depth: -1]
[min_data_in_leaf: 20]
[min_sum_hessian_in_leaf: 0.001]
[bagging_fraction: 0.8]
[pos_bagging_fraction: 1]
[neg_bagging_fraction: 1]
[bagging_freq: 5]
[bagging_seed: 3]
[feature_fraction: 0.9]
[feature_fraction_bynode: 1]
[feature_fraction_seed: 2]
[early_stopping_round: 0]
[first_metric_only: 0]
[max_delta_step: 0]
[lambda_l1: 0]
[lambda_l2: 0]
[min_gain_to_split: 0]
[drop_rate: 0.1]
[max_drop: 50]
[skip_drop: 0.5]
[xgboost_dart_mode: 0]
[uniform_drop: 0]
[drop_seed: 4]
[top_rate: 0.2]
[other_rate: 0.1]
[min_data_per_group: 100]
[max_cat_threshold: 32]
[cat_l2: 10]
[cat_smooth: 10]
[max_cat_to_onehot: 4]
[top_k: 20]
[monotone_constraints: ]
[feature_contri: ]
[forcedsplits_filename: ]
[forcedbins_filename: ]
[refit_decay_rate: 0.9]
[cegb_tradeoff: 1]
[cegb_penalty_split: 0]
[cegb_penalty_feature_lazy: ]
[cegb_penalty_feature_coupled: ]
[verbosity: 0]
[max_bin: 255]
[max_bin_by_feature: ]
[min_data_in_bin: 3]
[bin_construct_sample_cnt: 200000]
[histogram_pool_size: -1]
[data_random_seed: 1]
[output_model: LightGBM_model.txt]
[snapshot_freq: -1]
[input_model: ]
[output_result: LightGBM_predict_result.txt]
[initscore_filename: ]
[valid_data_initscores: ]
[pre_partition: 0]
[enable_bundle: 1]
[max_conflict_rate: 0]
[is_enable_sparse: 1]
[sparse_threshold: 0.8]
[use_missing: 1]
[zero_as_missing: 0]
[two_round: 0]
[save_binary: 0]
[header: 0]
[label_column: ]
[weight_column: ]
[group_column: ]
[ignore_column: ]
[categorical_feature: ]
[predict_raw_score: 0]
[predict_leaf_index: 0]
[predict_contrib: 0]
[num_iteration_predict: -1]
[pred_early_stop: 0]
[pred_early_stop_freq: 10]
[pred_early_stop_margin: 10]
[convert_model_language: ]
[convert_model: gbdt_prediction.cpp]
[num_class: 1]
[is_unbalance: 0]
[scale_pos_weight: 1]
[sigmoid: 1]
[boost_from_average: 1]
[reg_sqrt: 0]
[alpha: 0.9]
[fair_c: 1]
[poisson_max_delta_step: 0.7]
[tweedie_variance_power: 1.5]
[max_position: 20]
[lambdamart_norm: 1]
[label_gain: ]
[metric_freq: 1]
[is_provide_training_metric: 0]
[eval_at: ]
[multi_error_top_k: 1]
[num_machines: 1]
[local_listen_port: 12400]
[time_out: 120]
[machine_list_filename: ]
[machines: ]
[gpu_platform_id: -1]
[gpu_device_id: -1]
[gpu_use_dp: 0]

end of parameters

pandas_categorical:[]
